-0.35420585
-0.2806302
0.80942154
0.5226797
-0.2622327
-0.114400364
0.0
0.0
0.0
0.0
-0.18566287
0.0
-0.2236126
0.0
0.0
0.0
0.0
0.0
-0.31294218
-0.23898228
-0.22339056
-0.2229055
0.0
-0.55319893
0.0
0.0
0.0
-0.26151872
-0.20843895
0.0
-0.6409539
0.0
0.0
0.0
-0.5173062
0.0
0.046206385
-0.26378718
-0.25930735
-0.19007266
0.0
-0.5620902
0.0
-0.63402236
0.0
0.0
-0.4414786
0.0
0.0
-0.40879646
-0.38123506
-0.2733311
-0.1771404
-0.39083627
-0.42003462
0.0
-0.5712059
-0.5941083
-0.5547001
-0.5740419
0.0
-0.43832406
-0.43791384
-0.22714001
-0.29300848
-0.31720942
-0.1639201
-0.19823214
-0.49767494
-0.3020599
-0.4991087
-0.37743807
-0.1715089
-0.44315487
-0.47583055
-0.3890373
-0.27170956
-0.33408284
-0.35840222
-0.18865137
-0.31990054
-0.3101248
-0.1122436
0.0
-0.19081691
-0.101242386
0.0
0.0
-0.6183442
0.0
-0.24855573
-0.3319109
-0.3431892
-0.3032189
-0.26610982
-0.3742874
-0.26596546
-0.2386183
-0.37984875
-0.34539285
-0.4931542
-0.42279938
-0.32224822
-0.4609587
-0.28563014
-0.27720585
-0.27773082
-0.19226931
0.0
-0.42530835
-0.35298643
0.0
0.0
0.0
-0.54631335
-0.6405738
-0.08300945
-0.20741345
-0.22143163
-0.14436068
-0.21999735
-0.16933753
-0.65256935
0.0
0.0
0.03867861
0.57567585
-0.4108603
-0.36615738
0.0
0.0
0.0
-0.55683666
-0.6399953
-0.12840617
-0.28715715
-0.2753295
-0.20438527
-0.03917057
-0.21259579
-0.35459197
0.0
0.0
-0.3573473
0.0
0.0
0.0
-0.52533615
-0.5385214
0.06954199
-0.38208497
-0.30776736
-0.54961187
-0.09407421
-0.2942422
-0.3294578
-0.35129407
-0.2973886
-0.31674066
-0.3499198
-0.4340981
0.0
0.0
0.0
0.0
-0.5588927
-0.52290666
-0.54473054
-0.36141318
-0.26491147
-0.324415
-0.24472132
-0.24338005
-0.18276268
-0.28318855
0.0
-0.3148035
-0.3297654
-0.4007678
0.0
0.0
0.0
-0.47806355
-0.3545888
-0.36156198
-0.28216687
-0.4148252
-0.39536557
-0.37674755
0.03406401
-0.15686096
-0.3444997
-0.5108874
0.0
-0.14116694
0.0
0.0
0.0
0.0
-0.56204045
-0.6153269
-0.1459609
-0.29539305
-0.17487524
-0.3733339
0.0
0.0
-0.15448168
-0.07367889
-0.34383366
-0.33430928
-0.4734808
0.0
-0.5213507
-0.22808371
-0.11967766
-0.09850672
0.020604605
0.046151716
-0.26669848
0.16180275
-0.29640514
-0.21174784
-0.47852162
-0.43605664
0.0
-0.38775453
-0.44010785
-0.25812495
-0.019596824
-0.00071094255
-0.1445316
-0.07442
-0.007819071
0.008788116
-0.12674603
-0.22450142
0.0
-0.43527144
0.0
0.0
0.0
-0.37881872
0.0
0.0
0.0
-0.0071224826
-0.07954689
0.0
0.0
-0.14356446
-0.18716647
0.0
0.0
-0.5968707
-0.6222736
-0.25177836
-0.24549688
-0.46375063
-0.44559947
-0.4486107
0.0
0.0
-0.27060407
0.0
0.0
-0.55952746
0.0
0.0
0.0
