-0.2983181
-0.23163033
0.25568676
0.18681818
-0.24061304
-0.1820858
0.098077014
0.033077985
-0.08650109
-0.022495493
-0.03417494
-0.02932977
-0.2883756
0.09233539
0.08108595
0.062143892
-0.037014283
0.13251323
-0.0844954
-0.036191907
-0.25061503
-0.27923715
0.07854995
-0.12100247
0.12330347
-0.099682935
-0.12111358
-0.14372969
-0.20990868
-0.02054894
-0.13426694
-0.02892287
-0.041049644
0.01919341
-0.206973
0.079293534
-0.005060459
-0.19113693
-0.23791423
-0.3224265
-0.038249716
-0.24742833
-0.10808633
-0.19754912
0.13712484
-0.13705857
-0.22912593
0.084357664
0.024211317
-0.084740125
-0.1839806
-0.12241147
-0.29474273
-0.16045864
-0.1229313
-0.09425947
-0.018186402
-0.008447844
0.009890652
-0.26334032
0.012151539
-0.22716507
-0.10101575
-0.1640733
-0.21694541
-0.24631532
-0.25296083
-0.3665524
-0.064886056
-0.039376773
-0.0011439241
-0.06626606
-0.16972765
-0.13604303
-0.011277398
-0.2328957
-0.28308165
-0.25912234
-0.14020623
-0.120628454
-0.14928775
-0.2537584
-0.27169287
-0.1004903
-0.095921166
-0.07964682
0.09625155
-0.12718399
-0.094630316
-0.13838413
-0.13399272
-0.16238628
-0.13154162
-0.17767535
-0.19083352
-0.0651221
0.13002874
-0.23176022
-0.17081161
-0.24875055
-0.08217273
-0.11280251
-0.096471004
-0.15724023
-0.07973498
-0.09214779
-0.1665541
0.08411241
0.043793127
-0.13022423
-0.11609404
0.019344449
-0.054971233
-0.07668963
-0.12818706
-0.23833112
-0.08107063
-0.156997
0.04757281
-0.24861054
-0.118122734
-0.18032001
-0.29552326
0.090596214
0.08358279
-0.017620042
0.0047575166
-0.06400981
-0.114606805
-0.08473259
0.105212
-0.13318235
-0.15157257
-0.1798833
-0.16953981
-0.2052905
-0.13810202
-0.2037467
-0.2516901
-0.0813058
-0.12033094
0.038446933
-0.065268934
-0.17710584
0.12262854
-0.011160046
-0.085020736
-0.16464193
-0.3048827
-0.3764279
-0.2562761
-0.16852169
-0.102919504
-0.24425294
-0.04016487
-0.10571096
-0.16651298
-0.3108458
-0.20978782
-0.21368504
0.032711722
0.11699295
-0.038620092
0.13850883
0.013669223
-0.18230356
-0.12758894
-0.11492116
-0.23264281
-0.24864368
-0.17645554
-0.2171533
-0.24861522
-0.26546234
-0.19919047
0.051338598
-0.32690734
-0.33191234
-0.2308862
-0.074369095
0.10473803
-0.05392494
-0.13716222
-0.11238689
-0.31967354
-0.15238899
-0.062144004
-0.028884394
-0.07754848
-0.30980557
-0.24278332
-0.11281963
-0.2350685
0.106313825
-0.15425768
0.14340639
0.038722515
0.09588526
-0.093353316
-0.14522466
-0.27809712
-0.10235861
-0.22174087
-0.00018937411
-0.02848746
-0.05921215
-0.116425306
-0.2508767
-0.17444116
-0.25138378
-0.23475674
-0.21573758
-0.071054235
-0.16153766
-0.24056245
-0.12598391
-0.14575242
-0.12751406
-0.17165141
-0.2539233
0.05230834
-0.004728047
-0.03355606
-0.16812257
-0.22249708
-0.12895438
-0.06522092
-0.22900257
-0.28589487
-0.31278867
-0.34587222
-0.30822912
-0.2581822
-0.16373351
0.0888745
-0.14802958
-0.29285926
-0.027510151
-0.18584844
-0.027670577
0.1444059
0.012529224
-0.17151447
0.022311121
0.040226504
0.0748004
-0.3386274
-0.22848059
0.13558248
-0.10983288
-0.22010987
-0.24016978
-0.085993394
0.120690525
-0.1471044
-0.09799288
-0.045192257
-0.18015163
-0.14866543
-0.13305889
-0.026424358
0.006140694
0.0673251
-0.1467705
0.048865333
0.037053794
-0.1327037
0.12776595
0.034926996
0.061234027
0.20035379
0.18808977
-0.3833416
-0.13844742
0.19482258
0.09156457
-0.042460747
0.034108505
-0.1003954
0.0132629275
0.0067940424
0.11351919
0.20246209
-0.07457507
0.05829227
-0.0037207305
0.0330728
0.068142116
0.023724122
0.016220586
0.22299023
0.21848963
-0.11700204
0.11938628
0.043988794
0.10380909
-0.030732326
0.18315762
0.20592739
0.021538287
0.26594272
-0.011340648
0.0620289
-0.13088238
0.10910525
-0.021673724
-0.00032935932
0.14124674
0.20167932
0.22656785
-0.040853202
0.204544
-0.03990175
0.2700238
0.072133094
0.074396044
0.11439918
0.030979112
0.14535639
0.10315716
0.19896477
0.20303397
0.20168371
0.06338382
0.056214992
0.11661857
0.05293091
0.06748181
0.0736066
0.2052922
-0.13102679
0.29228842
0.22844218
0.17976949
0.22455007
0.2031704
0.1718812
0.21941024
0.0731784
0.004556604
0.043485332
0.09754006
0.15967533
0.13883992
0.098294236
0.19886954
0.12144768
0.16443084
0.12154078
0.11570958
0.1908973
0.13081424
0.1521551
0.07901277
0.07025266
0.054895885
0.066670045
-0.029089823
0.10887753
-0.019701272
0.13926323
0.15455665
0.14232863
0.14452524
0.17619964
0.11245884
0.05233339
0.19358231
0.13304633
0.22687955
0.12649283
0.1126867
0.12865293
0.20298846
0.17504819
0.07254525
0.12938361
0.023867138
0.05550091
0.10498985
0.13384528
-0.08823822
0.01570709
-0.021262288
0.15685263
0.29476982
0.1594328
0.21940318
0.12995012
0.3336074
0.13545065
0.07538163
0.3159718
0.012026116
-0.14410886
0.09241639
-0.11848028
0.10418205
0.13864549
0.11345783
-0.079464756
0.078724384
0.14562382
0.12972939
0.1371578
0.18510234
0.18829185
0.23790455
0.20652457
0.051622447
0.06112657
0.1477417
-0.07478812
0.14276497
-0.048744775
0.08390865
0.021707594
0.16125923
0.24451043
0.37616268
0.3103304
0.17751518
0.12271307
0.17543222
0.1214578
0.09307838
0.07999726
0.11759942
0.24189061
0.20166221
0.068405606
0.07763794
-0.114889875
-0.122395724
0.036113948
0.14776662
0.15068267
0.22914371
0.19435363
0.20244676
0.19963324
0.21997212
0.23432659
0.19902767
0.18298826
-0.014543518
0.12565981
0.15942797
0.24237518
-0.077844866
-0.0067533106
-0.11599844
0.18673208
0.096949995
0.1529766
0.1679369
0.06858022
0.05721253
0.038426477
0.2064515
0.19416669
0.16236445
0.26637828
0.0055773854
-0.014452958
-0.009143099
0.098567605
-0.02292575
-0.06563504
0.17984585
0.2750959
0.25378442
0.16461317
0.003237759
0.032889213
-0.10733234
-0.11395183
0.16503865
0.1429813
0.1699097
0.15160295
0.1899958
-0.012839913
0.14523785
0.18858089
0.19362
0.19662803
0.15736836
0.16128956
0.16233836
-0.005923945
0.14359452
0.16473141
0.17552008
0.13971175
0.058621958
0.17891243
0.20804286
0.15348694
0.17260559
0.20949669
0.20100743
0.16945025
0.1833508
-0.03612754
0.051854353
0.21937892
-0.035881124
0.12702297
-0.004689753
-0.13586427
-0.033728458
0.11977819
-0.06036689
0.090844214
-0.012950867
0.20145465
0.21927525
0.116327494
0.011523321
0.18630563
0.20051372
0.09951426
-0.09216118
0.24552283
0.30568555
0.009708187
0.1628679
0.07786495
0.06221952
0.050171096
0.08597624
0.08910744
0.17008473
-0.09589104
-0.072641596
0.1375782
-0.12003381
0.08296086
0.10392147
-0.21857013
-0.1775585
0.40043947
0.19195072
-0.17724079
-0.16825038
0.09517042
-0.0856034
-0.09915556
0.09336087
-0.003839389
-0.14244163
-0.18247207
0.07708494
0.017732948
-0.098213136
-0.016100109
0.03714986
-0.033666555
-0.0123429205
-0.19614899
-0.19950365
0.032373846
-0.11314614
0.043133333
-0.07309852
0.12217212
-0.21255648
-0.17767869
-0.07771391
-0.26253045
-0.12325891
-0.12675525
0.116378844
-0.12213794
0.06034787
0.0019769522
-0.22144154
-0.18277958
-0.21391161
0.124458015
-0.187435
-0.1204558
-0.21178223
-0.066553935
0.03180258
-0.11056447
-0.051784195
0.11627644
-0.14653352
-0.22740035
-0.15385827
-0.18801142
0.014272679
-0.09328571
-0.107834145
-0.049669333
-0.0582637
-0.05511602
-0.24669941
0.14210969
-0.24138479
-0.23170914
-0.19636859
-0.20794587
-0.18414038
-0.16924118
-0.21090561
-0.085256495
-0.055747285
-0.044587333
-0.14967942
-0.21265805
-0.17919292
-0.1626278
-0.20888387
-0.20388587
-0.29779607
-0.12974337
-0.08952958
-0.1627066
-0.14108521
-0.1364602
0.14122751
-0.08310854
-0.1017476
0.022519976
-0.04817365
-0.10811694
0.10019846
-0.10682019
-0.11234496
-0.105659656
-0.1054227
-0.14669535
-0.13994052
-0.011667387
-0.19027784
-0.12935628
-0.2024102
-0.12429694
-0.1087392
-0.094563305
-0.17216878
-0.18863493
-0.072161905
-0.11596146
0.010157114
-0.028881066
-0.113061085
-0.08527736
0.056362003
-0.11211242
-0.12402236
-0.15290895
-0.28727326
-0.06553116
-0.16580099
-0.062155314
-0.22388606
-0.124746114
-0.12171269
-0.30334094
0.061803997
0.115493536
0.026079271
0.024720497
-0.059234023
-0.10088321
-0.14224134
0.08025943
0.1264152
-0.16393638
-0.17941889
-0.12321319
-0.18131104
-0.1779287
-0.16074377
-0.18809983
-0.10181968
-0.15042323
-0.0070916563
-0.12910119
-0.17951879
-0.14397046
-0.09665854
0.018374577
-0.19518287
-0.22748284
-0.3862968
-0.2525499
-0.16805945
-0.1554625
-0.15264447
-0.10145791
-0.12863682
-0.24107637
-0.28657338
-0.25598687
-0.21846704
-0.11645822
0.10320875
-0.022209123
-0.04491993
0.08137959
-0.17877966
-0.18453911
-0.17177379
-0.17810099
-0.17700467
-0.23787582
-0.21345785
-0.21669038
-0.19252081
-0.13406464
-0.00817354
-0.23449992
-0.27201217
-0.27997312
0.03683047
0.018462732
-0.039558567
-0.20885547
-0.09880515
-0.16248809
-0.10304871
0.07555789
0.068279445
-0.0024956889
-0.16181849
-0.16328126
-0.1420064
-0.1754515
-0.11561197
-0.25827157
0.02499275
0.0039000958
-0.021844774
0.05025375
-0.16201803
-0.34486276
-0.1675075
-0.15089794
-0.004199034
0.050248142
-0.06479695
0.07548447
-0.17226559
-0.14555243
-0.21402094
-0.20654464
-0.14913058
0.13259566
-0.159255
-0.16378054
-0.12436271
-0.16561633
-0.116873875
-0.09858499
-0.2553985
-0.021737313
-0.09877075
-0.116224796
-0.14596353
-0.21310467
0.14371035
-0.11077379
-0.11722839
-0.12038906
-0.17794998
-0.23126458
-0.18563627
-0.19178626
-0.16938664
0.054848928
-0.16638644
-0.16553041
-0.14398655
-0.21868153
-0.029642396
0.061308682
0.029007941
-0.09042689
0.029789478
-0.010093361
-0.06889084
-0.21329802
-0.18716784
-0.050771035
0.08827932
-0.17287074
-0.21970065
-0.051236846
0.09977375
-0.23582834
-0.30734277
-0.019279134
-0.15411504
-0.10580229
-0.08539008
-0.08681467
0.11336842
-0.03217543
-0.12323499
0.041102603
-0.11450595
-0.15909843
0.09822075
0.023006827
0.042768538
-0.25590917
-0.21601075
0.36956716
0.063024655
-0.19514981
-0.22060803
0.014941379
-0.043306112
0.074582934
0.12374756
-0.0012324698
0.068588406
-0.24801628
-0.06940816
-0.026482351
0.057617337
0.025776416
0.1326549
0.013608559
0.0035594206
-0.20096521
-0.24755758
0.05667104
-0.11856828
0.10757646
0.12006682
0.018781856
-0.24314763
-0.21192795
0.0829678
-0.20469946
-0.032392547
-0.04899986
-0.10928878
-0.061121978
0.09755489
0.00074666337
-0.25353852
-0.20496686
-0.2564964
-0.04527405
-0.1593846
0.060216412
-0.15971819
-0.033966146
0.09029196
-0.19207366
-0.08683978
-0.08560361
-0.0959918
-0.21760565
-0.17429855
-0.21578433
0.0066076834
-0.05084115
-0.13030384
-0.032516778
-0.05648284
-0.055446137
-0.13201752
-0.11897467
-0.2169512
-0.1827056
-0.22197227
-0.21521857
-0.22807187
-0.21996638
-0.27506626
-0.07348597
-0.03362174
-0.053135905
-0.09774309
-0.2577162
-0.13220744
-0.09912978
-0.1957786
-0.25223282
-0.27291635
-0.13499932
-0.1134716
-0.21184766
-0.19609565
-0.19087823
-0.115040734
-0.051737905
-0.096852094
-0.032447547
0.12242693
-0.12624902
0.032654434
-0.14702642
-0.17424648
-0.16701622
-0.17968468
-0.20943104
-0.13894385
-0.06491957
-0.20462567
-0.13515998
-0.24490733
-0.12501568
-0.11360924
-0.12885658
-0.17596777
-0.21272023
-0.119481824
-0.15161593
-0.06613075
0.06353304
-0.15754668
-0.15820323
0.111224115
-0.099524766
0.14066541
-0.12676865
-0.19927126
-0.1420362
-0.21112952
-0.0847101
-0.26857474
-0.166757
-0.13013555
-0.20919257
0.14238903
-0.06723133
-0.021842351
-0.038546823
-0.13417932
-0.18076807
-0.05962038
0.13051444
0.0121828765
-0.10417729
-0.06931888
-0.21558589
-0.17755793
-0.14545418
-0.25005615
-0.20415507
-0.08788991
-0.12998655
0.10150315
0.011396065
-0.13392785
-0.13550687
0.044740945
0.022787794
-0.115408055
-0.21357283
-0.4372965
-0.17578608
-0.12576713
-0.053101875
-0.18800749
-0.11200927
-0.13300751
-0.23469852
-0.30438116
-0.18834656
-0.1865817
-0.01252006
0.060114846
0.14546832
0.079533696
-0.14412972
-0.104471885
-0.14575194
-0.21722488
-0.16823828
-0.18559067
-0.2685614
-0.22043458
-0.23521292
-0.2313254
-0.14782634
0.14062908
-0.28392848
-0.19841312
-0.18896514
-0.04616373
0.043175116
0.0068929493
-0.12433894
-0.13741805
-0.1052252
-0.14436904
0.031293448
0.019262087
-0.042790633
-0.19261289
-0.2017842
-0.12573494
-0.101112925
-0.0016385913
-0.21595943
-0.05168975
0.063275665
0.09691514
-0.07749678
-0.09178402
-0.3196286
-0.2071239
-0.14754094
-0.0024544823
0.010919183
0.057972968
0.116656154
-0.18511918
-0.23953906
-0.2372162
-0.21965472
-0.10513461
-0.072597004
-0.14352974
-0.15369967
-0.11910973
-0.12133746
-0.13051325
-0.15739204
-0.23502703
0.123022325
-0.102908395
-0.11834983
-0.11269615
-0.19634728
-0.12516387
-0.07601568
-0.10008406
-0.18291035
-0.25821155
-0.2939595
-0.26390007
-0.19005336
-0.16218033
0.18918985
-0.20602907
-0.19654232
-0.13142419
-0.16551958
-0.116775714
-0.09394488
-0.1306683
-0.12748554
-0.044050224
-0.093579546
0.010207564
-0.238389
-0.22168644
-0.0009533316
-0.051903196
-0.17615227
-0.17965366
-0.057262905
-0.12919116
-0.04843386
-0.103384584
-0.015996478
-0.14407523
0.0030704692
-0.016892752
-0.03077319
0.019069284
0.0108044
-0.14731282
0.071602896
0.11316481
-0.1278762
-0.030151002
0.022332251
-0.106079265
