-0.05727513
-0.062656894
-0.17058156
-0.05799816
-0.14090025
0.14403093
0.024393862
-0.12807454
-0.13886778
-0.06199864
-0.24038397
-0.23004644
-0.05778902
-0.13678515
0.014573527
-0.0332411
-0.052848384
-0.055145316
-0.09090774
0.035151236
-0.043267068
-0.119655
-0.02680593
-0.13624492
-0.079770684
-0.1328406
-0.14553437
-0.1132908
-0.19469649
-0.16323027
-0.116832554
-0.112620406
-0.109779045
-0.09987302
-0.012960665
-0.09642858
-0.11825227
-0.023007737
-0.1447907
-0.09922622
0.11012361
-0.04185679
-0.114330746
-0.019391526
-0.015082761
-0.086050235
-0.07278757
-0.051032
-0.10671176
-0.08143001
-0.0596634
0.101957805
-0.15750442
0.09983663
0.041817266
-0.07772256
0.10596881
0.16157754
0.11132089
0.27273905
0.23714592
-0.017863518
-0.06637048
0.2081222
-0.017857697
0.03953856
0.20873387
0.0751695
-0.042350683
-0.09170721
-0.09443933
0.067598835
0.45287642
0.54657567
0.48708355
-0.0050278893
0.10674217
-0.16175476
-0.18358576
-0.15692902
0.27714285
0.115274325
0.12167094
-0.26670977
-0.057606127
0.28489205
-0.21886587
-0.20794016
0.5931013
0.019355554
-0.044838224
-0.20400384
-0.25720778
0.7101656
0.5980072
0.43518823
0.09686056
0.024433367
-0.1426161
-0.20438509
-0.19729154
-0.08795861
0.055910036
-0.007298028
0.1311925
0.47035998
0.46007556
0.45177943
0.14976045
0.1778523
-0.27477884
-0.3187064
-0.20821774
-0.20456935
-0.19251205
0.117236935
-0.04297891
0.030503023
0.078333646
0.30990136
0.29915112
0.4857436
0.21666116
-0.06364057
-0.104475886
0.27700454
-0.16920413
-0.36661038
-0.19282566
-0.20242083
-0.07649847
0.15912564
-0.0014613627
-0.20236254
-0.14126688
-0.059231296
-0.1307495
-0.11188248
0.11065301
0.21646829
-0.0740996
-0.025138548
0.2324408
-0.1115755
-0.06858458
-0.05413276
0.17652024
-0.15097435
0.13685456
0.37893754
0.17201255
-0.06500353
-0.2267189
-0.07073553
-0.004617623
-0.08414975
0.051982403
-0.020836912
-0.2088615
-0.15745082
-0.3023708
-0.11341319
-0.01655592
-0.079179
-0.09648499
-0.07349028
-0.24640115
-0.28899178
0.24007949
-0.30284682
0.44555935
0.0720219
0.18769127
-0.10370909
-0.092138484
0.07163758
-0.0008874787
-0.033803426
-0.07297978
-0.27761704
-0.13560018
-0.10330924
0.43772307
0.6326353
-0.19101016
0.20410441
0.6102673
-0.16551992
-0.058770023
-0.08134864
-0.0074661314
0.14863311
0.041654687
-0.0524785
-0.0839795
-0.10591412
0.022970947
-0.04411942
-0.08049486
0.11790424
0.3699605
-0.1785074
0.76524675
0.23988661
0.07393096
-0.012724029
-0.06481468
0.17523648
0.035724845
0.17511292
0.061333083
-0.040079385
-0.023482718
-0.02097693
-0.24982609
0.5112315
0.17662966
0.0073466925
0.15643387
0.05088057
-0.0011713423
0.27951303
0.1892915
0.2491439
-0.06839585
-0.039725367
-0.17131662
0.010389844
-0.022562068
0.04837896
-0.060689926
-0.026072256
-0.3093269
0.80796236
0.21088517
0.1902087
0.7418864
-0.29860124
-0.13191067
-0.039830647
-0.082755424
-0.2682693
0.0780134
0.06467555
-0.0045941724
0.24242494
-0.16081429
-0.19755952
-0.078908354
-0.09254633
0.041052356
-0.21536079
-0.1107177
-0.04153147
-0.05661454
-0.11912664
0.05004291
0.07156445
-0.16176178
-0.10332564
-0.13836424
-0.12949568
-0.09050922
-0.212434
-0.107744515
-0.091141775
-0.19469848
-0.14449312
-0.06742548
-0.12874089
