-0.05224561
0.024962783
-0.104611844
0.13450946
-0.11188536
0.08837372
0.049650326
0.00014348328
-0.106001064
0.062259078
-0.030975744
0.05086498
0.11784239
0.019613534
0.14363487
0.04912764
0.007154602
0.008782931
0.08309462
0.0032143784
-0.04386647
-0.019244848
0.08104454
0.018227143
0.100439385
-0.07488033
-0.05309348
0.20516387
-0.09022672
0.017934823
-0.11832685
-0.019392049
0.04506518
0.077777766
0.10670988
-0.0026339449
-0.012025418
-0.12867245
0.09881139
-0.142553
-0.029065084
0.10484679
-0.039798643
-0.09249915
0.043990072
0.020347195
0.14649135
-0.023130666
0.08892819
0.122695826
-0.10950212
0.073202476
0.026710475
0.010692183
0.07973349
-0.14920285
-0.073330075
-0.1298496
0.058110967
0.14430664
-0.013824659
-0.12642783
-0.1109113
-0.16864514
0.036528558
0.16167252
-0.10661577
-0.08437248
-0.0022175035
-0.061287407
0.1236197
0.09062689
0.08144994
-0.18432094
0.11770755
-0.0059519187
-0.10763448
-0.0125741605
0.06606964
0.07689053
-0.20034891
0.078162104
-0.067091234
0.11075821
-0.14660382
-0.082430705
-0.0325606
-0.018807758
0.0380669
0.020342387
-0.0014706465
0.19422697
0.043686226
0.021085568
-0.02614642
-0.132598
-0.11744416
0.03267699
0.05752072
0.030958004
0.11159856
-0.071664646
-0.031710047
-0.05955487
0.11863877
-0.07431301
-0.049566023
-0.034755558
0.12002946
0.11632512
0.02002044
-0.07026398
0.10194679
0.13497816
-0.092387326
-0.113506876
0.005563758
-0.005808787
0.07624845
0.10158551
-0.02419377
-0.17980002
-0.058326397
0.23488346
-0.19233195
-0.052606434
0.082196
-0.060131673
0.036657292
0.07646758
-0.028163217
0.041474104
-0.048676144
0.06599774
0.008716709
-0.0012454336
-0.02873734
-0.16371189
0.09854275
0.13105088
-0.090120904
-0.00070388766
-0.028730435
-0.0721419
0.13249604
-0.10710922
0.0785833
0.032274343
-0.058313046
0.11104748
-0.052413773
0.094664365
0.033241007
0.023436703
0.022232816
-0.0023843956
0.09562134
0.0003547589
-0.08119623
-0.11024941
0.068485394
0.1132612
-0.11562815
-0.029374544
-0.15789638
0.1474124
0.08297129
0.038002905
0.05202214
-0.031906523
0.12754524
-0.022824822
-0.11974519
0.078298405
0.101965785
0.028769556
-0.008748843
0.025489226
-0.045057863
-0.010258074
0.032696836
-0.101362504
-0.10816677
-0.027273802
0.059670053
-0.16502093
0.054664683
0.020953894
-0.061369024
0.10346916
0.09637934
0.034895156
0.034145124
-0.01987711
-0.031996824
0.12431265
-0.13459863
0.044906896
0.044837896
0.14333782
0.07594715
0.058947157
-0.044962015
-0.13903274
-0.1238209
-0.041091904
-0.033723533
0.014050192
0.08921004
0.046962913
0.07117976
0.13222498
-0.12969676
0.13296041
0.053546175
-0.06139074
-0.09023606
0.03392211
-0.07862989
0.035187203
0.10933779
-0.070031896
0.08727123
-0.06359977
-0.024345055
0.070543855
-0.07887031
0.063566834
0.007403642
-0.011171043
-0.008868381
-0.13338476
-0.013544828
0.026510954
0.09018363
0.13656427
-0.010517329
-0.043667227
-0.12753539
-0.07112729
-0.016311502
0.06456216
-0.06112054
-0.020469433
-0.10438507
0.13439476
0.0069640344
0.07116118
-0.048807703
-0.11735404
0.19404703
-0.030552275
-0.037759524
0.042432882
0.08886043
0.02081754
0.065943
0.14333956
-0.084213
-0.06942423
0.04801181
-0.11416888
0.032154873
0.0790361
0.002861157
0.13526432
-0.037430078
-0.040646054
0.0133137405
0.12006055
0.07032989
-0.011267662
0.12350628
0.11451655
-0.08910391
0.10591106
-0.11091553
-0.12914753
-0.037162952
0.106586255
0.093858115
-0.16372529
0.07861873
0.012198583
-0.08269471
-0.079701915
-0.09703129
-0.13092563
-0.10528924
-0.0857806
-0.054685187
-0.1239418
0.087619975
-0.13022122
-0.13080077
0.049749084
0.08241018
-0.10872168
0.06876567
0.07041784
0.011176511
0.06963676
0.07454432
0.021780077
-0.02184622
0.07054472
0.07590881
-0.08150338
0.0013714433
0.07222149
0.03999576
-0.015408814
-0.015415847
-0.046572305
-0.046815418
-0.0016654134
0.0007568151
0.037081912
0.03356923
-0.11580277
-0.00058404513
0.04466233
-0.069516286
0.034684874
0.07155425
-0.01245705
0.049697924
-0.07371959
-0.06966912
-0.01703676
-0.10392446
-0.014466754
0.13069631
-0.026860802
-0.04161003
-0.099062964
-0.14100587
-0.025759885
-0.047705594
-0.0008185232
-0.01815068
0.17282182
-0.0015921887
-0.010365773
-0.057495996
-0.09608322
-0.070720926
0.16288535
0.02968562
-0.12791112
-0.06615882
-0.05176485
0.12184208
0.017451603
0.07844407
0.12914363
0.017814023
0.114672944
0.09881239
-0.0014183684
0.042241774
0.08808979
-0.11701231
-0.07440184
-0.094114594
-0.03162698
-0.028889073
-0.09513123
0.08465933
0.07948958
0.1116255
-0.025930787
-0.14779067
-0.064628705
0.14373824
-0.038645793
0.1434523
-0.17496964
-0.014914281
-0.0010623093
-0.09313294
0.034294154
0.031441376
0.008245002
0.08678236
-0.0663755
0.048989374
0.073128715
-0.07771629
0.021885114
-0.007743272
-0.13694082
-0.039261162
0.0323024
-0.073269725
-0.09525479
0.026366131
0.062246278
0.06353619
0.04912617
0.088061996
-0.010674446
0.09942481
-0.129052
0.05176263
0.04887295
0.04072699
-0.122837216
-0.00982342
-0.006931419
-0.06904059
-0.10821056
0.016262056
0.12071126
0.122086845
-0.043955434
-0.1594958
0.14686199
-0.12028829
0.10533523
-0.15722935
0.13197047
0.017341396
0.10515898
-0.06977074
-0.14575522
0.0807288
0.05889372
-0.18218373
-0.12600793
-0.010137832
0.042347223
-0.010091492
-0.0639249
0.01915765
0.023799052
0.0441869
0.013691011
-0.085089386
-0.07937799
0.13592555
-0.01726874
-0.077591754
0.16047016
-0.13171941
-0.12052346
0.07119594
-0.11466996
-0.103871696
-0.034835663
0.16659306
-0.10962694
-0.09741347
-0.0458612
-0.087979674
0.08112898
0.13599332
-0.06329487
0.15393032
0.08883376
-0.12425025
0.009629313
-0.11959021
-0.037357274
-0.123063706
-0.0059127514
-0.022990022
-0.07955026
-0.025685765
0.1043045
-0.05784905
0.020459041
0.19885965
-0.083711736
0.17644101
-0.005047748
-0.13270894
-0.12900639
-0.14529632
0.06593963
-0.111854285
-0.14439681
0.12719251
-0.012618899
0.059201047
0.011186123
0.0048816055
0.07649417
0.08960879
-0.017526194
-0.058343597
0.14076714
0.12474193
0.08380023
-0.10203417
0.14167403
-0.10380252
0.07206325
0.084712826
0.066096656
-0.0130146565
-0.07434037
0.122090995
0.0140087325
0.087252274
-0.10981741
0.121750236
-0.029166093
0.01173079
0.025745481
-0.13140312
0.031896364
-0.047535017
0.06008847
0.14211439
-0.00500077
-0.114553995
-0.07936448
-0.11315344
0.14071818
-0.12700447
-0.0028957576
0.085951656
0.09369007
0.09662208
-0.120837525
0.0455644
0.07855226
0.097548485
-0.117588565
-0.057025515
0.09643255
-0.09469908
-0.028166875
0.026168317
0.102158934
-0.087808356
-0.022460282
0.1383038
0.13768084
-0.08310819
-0.0010198653
-0.0011936575
-0.05347702
-0.043525137
0.07423386
0.029240215
-0.111815624
-0.16807985
0.071298055
-0.022307016
0.006793888
0.12147592
-0.010463421
0.120583795
0.17982677
-0.07091261
-0.020739632
-0.08490474
0.023516225
-0.0662009
0.19682923
-0.0916771
0.11007551
0.07204984
-0.07468658
-0.0144026615
-0.041166477
0.19622502
-0.13918999
-0.00036996332
0.063798286
0.012687145
-0.06448884
0.061221723
-0.11877445
-0.1256196
0.028810378
0.0022333898
-0.03217917
0.07344092
0.13867885
-0.13792929
0.045592904
-0.045132723
0.06640548
0.10558193
-0.011019491
-0.08874202
-0.126034
0.08783505
-0.01220788
0.050378665
0.14194219
0.038642287
-0.108190134
0.09571563
0.09497976
0.09842466
-0.037662722
0.13049652
0.12478925
0.0415909
0.08586094
-0.13484664
-0.074619696
-0.03726104
-0.11021666
-0.040859267
-0.09784137
-0.062149428
-0.108376026
-0.10948269
-0.045563854
0.05679241
0.13030781
-0.14262861
-0.08601613
-0.03979002
0.019148275
0.083020575
0.016197892
0.12393178
0.07849142
-0.059951246
0.08049867
0.11431519
0.10037458
0.087419696
-0.12452999
-0.11768878
-0.06405509
-0.011820168
-0.053777914
-0.04040894
0.12272531
-0.08400576
0.013987737
-0.11553311
-0.0073632477
-0.18533531
0.064812206
-0.03489391
0.028391797
-0.17226358
0.027477067
-0.15289468
-0.009440076
-0.102680326
0.084377564
-0.035253357
-0.06207679
-0.47832718
-0.13995057
-0.10333147
-0.33959183
-0.073494524
0.011464433
0.15184665
0.17595276
-0.16645832
-0.09100544
0.004507945
-0.108306535
0.05163722
-0.07025311
-0.048659056
0.07847791
-0.39897373
-0.09538433
0.062004093
-0.012076753
-0.16442595
0.16626401
0.0080159
0.11981539
0.059987765
0.09786904
0.059389148
-0.11848415
0.14342572
0.04325939
0.06765615
0.13506536
-0.20701061
-0.1452055
-0.090316825
-0.14811708
0.12830533
-0.13001162
0.28479105
0.2305009
0.066057116
-0.0039260862
0.086394235
0.058114152
0.30211052
-0.063114546
-0.0038335132
0.03209046
-0.07822759
-0.16275474
-0.20188259
-0.3352138
0.06376047
0.19688544
0.033860344
0.022476142
0.097724654
0.12012492
-0.03634481
0.1588628
0.2043777
-0.28734013
0.21595868
0.07491195
0.026482336
-0.101288885
0.008266497
-0.21304514
0.31733063
0.24767017
0.17698972
0.5289166
-0.014441263
0.16476518
0.031057829
0.07149667
0.24094746
-0.063560985
0.22095148
0.16772394
0.029501103
0.11176248
0.027494963
0.13736017
0.07986028
0.18439914
-0.04865085
-0.01599365
-0.1730359
-0.057978936
0.0696798
0.15096365
-0.07146096
0.05526671
-0.13499475
0.06473108
-0.120261624
-0.02894961
-0.05995489
-0.06602787
0.051921677
-0.11677299
0.124757476
0.113496326
0.071096785
0.01202427
0.025227534
-0.099078916
-0.055938665
0.03650327
-0.1023435
-0.0916811
-0.08602643
0.03346378
0.027069127
-0.13268642
-0.14536706
-0.10105222
0.10533827
0.018945897
0.00050512934
0.16567881
-0.089586675
-0.002779789
0.07593812
-0.232605
-0.013194466
0.04797369
-0.06269831
0.006479377
0.001420369
-0.054941896
-0.12864226
0.05731668
0.092156135
-0.09370243
-0.026067423
-0.14105345
-0.030646697
0.11708238
-0.03313482
-0.07930129
-0.07595416
0.090682566
-0.054558493
0.13623244
0.033812784
-0.0839083
-0.08304198
0.03209139
0.035592422
-0.112288676
0.0742415
0.1081698
-0.14155822
0.0135579845
-0.0706977
-0.101793185
0.15687679
0.17997867
0.023935137
-0.15091881
-0.13761674
0.057440616
0.003837585
0.07399732
0.15110227
0.0051820413
0.051524602
0.116699055
-0.06771779
-0.0685877
-0.0917133
-0.11344784
0.02905745
0.071981564
0.03437439
0.10994631
0.026190313
-0.059891164
0.23120296
0.11254076
0.065669365
0.08501471
-0.039833277
-0.071904354
-0.051253855
0.08547368
0.17169642
0.009081495
-0.14737564
-0.001320576
-0.01649823
-0.3402384
-0.20773691
-0.093585536
-0.032893434
0.14859554
0.03902248
0.071842976
-0.3185955
0.10873552
-0.069958515
-0.07482913
0.11247326
0.042751607
0.081659414
-0.117678
-0.4529518
-0.1169793
-0.01106286
-0.13862836
-0.11698185
-0.0616401
-0.010415448
-0.093909666
-0.17099261
-0.12627678
-0.12952994
-0.29459
0.005065992
0.029367093
-0.098661974
-0.12857562
-0.44537404
-0.15624197
-0.2635382
-0.40028262
0.13539238
-0.11727984
0.002878353
-0.12703614
-0.10919701
0.012601569
0.06433463
-0.12645972
-0.013543695
0.09808645
0.053349733
-0.07109724
-0.13251927
0.035432756
-0.04974933
0.0029522479
0.1885504
0.061471898
0.20340456
0.28206196
0.024836106
0.2050101
0.20959161
-0.07175522
0.12745117
-0.19669014
0.06952022
0.24105568
-0.10721836
-0.386672
-0.13634636
-0.47697747
-0.0028533256
0.04413621
0.22579007
0.019169921
-0.117504925
-0.014336958
0.030412935
-0.033030085
0.23926918
-0.21581475
0.25007418
0.22241831
-0.33921883
-0.35419247
-0.19248806
-0.48745078
0.6007662
0.7555297
0.7825038
0.9285913
0.28270277
0.36256704
0.23197755
0.1347049
0.20351078
-0.09845554
0.105915
0.31640652
0.18418506
0.35914797
0.19826454
0.2797596
0.52767605
0.67478204
0.7241238
1.0587204
0.3583633
0.17712751
0.32172868
0.2290223
0.33697182
-0.24660939
0.24519698
0.18914984
0.11651756
0.3712987
0.04371603
0.28546655
0.23320766
0.24556206
0.013173513
0.17257513
-0.034932736
0.14354993
0.19737935
0.1602206
0.072741434
-0.16002133
-0.03980092
0.16239819
0.046892762
0.083800934
0.15949282
0.0023150223
0.020068096
-0.041130997
-0.022857957
0.15223247
-0.13703908
0.05034488
0.002566788
-0.14894591
-0.026068863
-0.009060203
-0.01340331
0.05375201
0.06778501
-0.1262948
-0.013166164
-0.03123915
-0.03965873
0.051222384
-0.09567016
0.14778057
-0.03754005
-0.100606285
-0.1376098
0.1204406
-0.097220115
0.1458906
-0.0721237
0.0049754493
0.04511294
-0.025046352
-0.08756674
-0.018225791
-0.055045415
0.07346217
0.083099626
-0.042816482
0.034950636
-0.05387331
0.05900539
-0.12460561
0.11878252
-0.13067855
0.060665295
0.09942018
-0.17709646
-0.009984009
0.019169617
-0.02231041
-0.11810791
-0.014240713
0.11763436
0.04328755
0.096613124
0.102529645
0.052359566
-0.03496055
0.018363237
0.014450442
0.12089648
0.0059068785
0.0812229
0.062930115
0.08722348
-0.07332163
-0.009247508
0.26651195
0.15028222
0.30787525
0.0050273724
0.13218294
-0.024062147
0.14595881
0.23707195
-0.015645696
0.25543347
0.33903542
0.09019743
0.03317091
0.11248941
0.05403506
-0.033586815
0.16939187
0.1301706
0.025434496
-0.029814426
-0.05700978
-0.07547814
-0.06687199
-0.03441988
-0.036904823
0.16992138
0.17499729
-0.09550032
-0.025748027
0.023114398
0.017166419
-0.017584292
-0.029384207
0.085001454
0.019860135
-0.025851093
-0.106334664
0.02651774
-0.11117
0.05695603
-0.08531038
0.06966815
0.036040068
-0.15116453
-0.098041624
-0.005790536
-0.15690196
-0.00504848
-0.059914105
-0.03372318
0.025230369
-0.17892696
-0.064979814
-0.1103125
-0.19275716
-0.05629153
-0.008981785
-0.1390032
0.10018135
-0.35703826
0.030969564
-0.32116598
-0.100287385
0.07797151
0.019749232
-0.08399397
-0.047500353
-0.23394018
-0.10757096
-0.2839014
-0.27591223
0.09453269
-0.0035481008
-0.20397209
0.07639017
-0.47259256
-0.36404017
-0.40256375
-0.28891215
-0.04602202
0.18804775
0.1245809
0.09936831
-0.047249038
0.21514118
0.18028328
-0.01955341
-0.08318795
-0.105930895
0.32542133
0.12658991
-0.14760241
-0.12728997
0.021391392
-0.06375901
-0.06779713
0.2531114
0.13208477
0.053052187
-0.23987722
0.06824955
-0.03344025
-0.11654002
-0.23501247
-0.1865598
0.15093598
0.19708495
-0.34947088
-0.45161182
-0.32586968
-0.5355657
-0.081634864
0.26141444
0.18739425
0.18094252
-0.093779184
-0.07595322
0.12028422
-0.15116358
0.023168782
-0.20601262
0.22802696
0.18667027
-0.29119927
-0.30112585
-0.38059968
-0.5788112
0.30655083
0.5998873
0.41225955
0.62882596
0.061700236
0.42769656
0.26564005
0.0122813685
0.28981248
-0.14573176
0.18189466
0.26451138
-0.10113279
0.1396937
0.08488196
0.15869002
-0.04259135
0.17255527
0.25074896
0.10691396
0.04704027
0.05414129
0.08662344
0.09526427
0.23065472
-0.2559169
0.23043127
0.11785896
-0.17300297
-0.12595849
-0.16489647
-0.25433624
0.580587
0.6089318
0.8626983
0.8468364
0.1639085
0.18791904
0.24131341
0.19268137
-0.0089831855
-0.020250205
-0.06676908
-0.0137757175
0.19719426
0.1999209
0.11344824
0.3041362
0.3144648
0.33232194
-0.032044705
0.22523965
0.06398069
0.12775615
-0.056829214
0.14398934
-0.076534
0.036262948
-0.24637778
0.04755639
0.09749126
0.061190218
-0.1635194
-0.0851288
0.04639508
-0.04655739
0.11749698
0.15199402
-0.023613134
0.051194154
0.05232324
-0.009236201
-0.11635832
0.03486194
-0.1693468
0.10218063
0.04868766
-0.038106654
-0.07687186
0.063632555
0.12192791
-0.1078574
0.04385594
-0.012696725
-0.084686965
0.012867274
0.05440774
0.06541549
-0.0015383539
0.026512753
-0.042196184
-0.06587002
-0.09433279
-0.15112297
-0.1318768
-0.12663026
0.088383116
0.13715822
0.13958542
-0.051768895
-0.05421596
0.08883904
0.10264473
-0.009555702
0.047416586
-0.030031057
-0.001394692
-0.003182124
0.07206013
0.008620592
0.11120864
0.122297466
0.049245182
0.17542481
0.07946154
0.20299391
-0.14799663
-0.12489536
-0.14908044
-0.02798314
0.1757769
-0.21551056
-0.04135408
0.21769325
-0.07065755
-0.21756938
0.09893953
-0.20322712
0.2775073
0.39530662
0.41708428
0.5850806
-0.07706103
-0.021463387
0.17053463
0.18365118
0.07596766
-0.08266495
0.17614006
0.40391567
-0.35913306
-0.2792239
-0.07596195
-0.011574373
0.073769026
0.3045623
0.34940678
0.35537496
-0.059144866
0.08833011
0.017793162
0.041046914
0.22551312
-0.07613357
0.30307016
0.14002009
-0.15052073
-0.0947429
0.1020366
0.2181992
-0.1125359
0.058807492
0.08186999
-0.14958023
-0.022620771
0.05362728
-0.016487101
-0.11370308
0.1769175
0.091911465
0.07382397
0.2105523
-0.0026595066
0.040831376
-0.046568975
-0.08327991
-0.041702997
0.06285213
0.0062383534
0.007282379
0.05661113
0.11223324
-0.016072772
0.116088405
0.08424036
-0.25621182
0.13449432
0.36661658
-0.15595822
0.035340205
-0.037578095
-0.23291133
0.059504073
0.23664449
0.116909705
0.34537226
0.09799154
0.38940045
0.38462612
0.3352078
0.00011735037
-0.13397199
0.16690408
0.17521761
-0.062349763
-0.032985497
0.106831044
0.013205964
0.34324667
0.40767568
0.28073448
0.2787841
0.047214765
0.5012067
0.07747227
0.15187342
0.29635617
-0.31549165
0.26977193
0.25018996
0.027482858
0.13467024
0.14417934
0.11850121
0.21646129
0.31742418
0.09258515
0.17236264
0.14436789
0.11337566
0.12632452
0.023784563
0.2141336
-0.15621397
0.19086018
0.21646804
-0.03344065
-0.025295995
0.116262555
0.061645817
-0.1578596
-0.036039826
-0.014104778
0.18614013
-0.18468702
-0.10514748
0.0401753
-0.097265065
-0.034562126
-0.2641313
0.14149533
0.05711722
-0.41858068
-0.41943797
-0.23230213
-0.42052716
-0.07408281
-0.013415522
0.076669954
-0.029352004
0.030044015
0.16921562
-0.025927799
0.04432191
0.10504832
-0.1925109
0.14957635
0.11092608
-0.2451496
-0.015263212
0.045273125
-0.18244778
0.05522565
-0.056352872
-0.08485162
0.024653332
-0.10603052
-0.108689934
-0.021426767
0.030486723
-0.08898061
0.109819956
0.07805052
-0.04192744
-0.030176016
-0.010238486
-0.14626424
-0.11322352
-0.061500594
-0.08137236
-0.09526592
-0.07249375
-0.041870356
-0.04024774
-0.06928867
0.07519289
-0.05059994
-0.110439986
-0.01517733
0.18270476
-0.073468916
0.06738122
-0.060924746
-0.17473957
0.11253937
0.13533226
0.23737344
0.23229994
-0.0033182004
0.12564448
-0.029549249
-0.14615919
0.42426607
-0.16459112
0.2455599
0.087475374
0.060061403
-0.15693225
-0.116210416
0.0130346455
-0.12506151
-0.08361936
0.09793296
0.07492882
-0.061683357
0.016617838
0.04985149
0.22353101
0.13523406
-0.018898848
-0.016832208
-0.017286858
-0.09660646
-0.078897
-0.023486217
0.1737991
0.13926001
0.12011414
0.11153028
0.053578388
-0.14879598
-0.02948105
-0.15482625
-0.050064743
0.14959309
-0.2882292
-0.015757874
0.036371328
-0.21559022
-0.22709824
-0.06842857
-0.11490902
0.17220059
-0.00293511
0.084725685
0.20536534
-0.15757108
-0.1308406
-0.028205974
-0.03317504
0.20331109
-0.27131453
0.053288113
0.15122421
-0.36742324
-0.15058403
0.07362148
0.059746858
-0.08211999
0.097170115
0.1648156
0.01822034
-0.16570066
-0.15183158
-0.08336572
0.20566383
0.086343706
-0.094179645
0.094419524
-0.12213273
-0.04492025
-0.052435607
0.207951
0.22258252
-0.103402466
0.12836386
0.056440987
-0.07706508
0.0021484292
0.07856573
0.10629551
-0.027778968
-0.059074525
0.07212944
0.027672976
-0.1024075
-0.045033485
0.06344704
0.032538418
0.07601834
0.08523187
0.17267877
-0.03228495
-0.029890355
-0.10330868
0.31878117
0.27566206
0.10874433
-0.07942719
0.0030339912
0.05439225
0.24134123
-0.27628443
0.014586254
-0.05960153
-0.068638995
-0.067810714
0.03227035
-0.019875947
-0.10025385
0.036423717
-0.064864874
0.08704948
-0.041758012
-0.012370518
-0.0100873755
-0.0037296442
-0.05383718
0.105447926
0.06284809
0.006115352
0.012021589
0.06265147
0.003289325
0.030602455
0.039758887
0.0108466605
-0.11296125
0.048940327
0.066962965
-0.021804024
0.008008796
0.18252596
0.18246616
-0.11429744
-0.1554735
-0.0045119612
-0.18258756
0.06950482
0.0062681558
0.08380362
0.111287355
0.048409056
-0.010413534
-0.14705619
-0.085121945
0.06244031
-0.13878939
-0.02774435
0.20080984
-0.2635336
-0.08224258
0.029669644
-0.17675984
-0.08724061
0.12696318
0.022583162
0.10672985
-0.07931828
0.110929124
0.10626156
-0.018150602
-0.01572127
0.05685214
-0.030752042
0.030778976
0.061139595
0.0010329654
-0.089769274
-0.11144849
0.002538357
0.007352269
-0.08827092
-0.11039626
0.057992265
0.007696153
-0.08885535
0.012194545
-0.0007881145
0.13834499
0.10551671
-0.11505365
0.053474538
0.06442423
0.10960989
-0.02526621
-0.11541971
0.02824756
0.03899611
0.043994166
0.05534093
0.21007738
-0.06008559
-0.13612758
0.23978579
-0.13374566
-0.0021992605
0.41420376
-0.044144765
-0.10257966
0.102701254
0.10062404
0.003567385
0.019728929
0.15466125
0.084770545
-0.0636549
0.012786724
-0.10833287
-0.11534788
0.36796746
-0.33920205
0.19138667
0.44174638
-0.20215555
0.051567007
0.10560089
-0.06432103
0.24098258
0.40937766
0.35472095
0.6691116
-0.30558914
0.23021884
0.06834339
-0.03310388
0.6411802
-0.40518245
0.6546375
0.5654984
-0.21835053
-0.12396954
0.027033867
-0.12655461
-0.091193445
-0.1448271
-0.0878403
0.0073919715
-0.15496007
-0.17612962
-0.18307783
-0.025928212
0.05436552
-0.07961527
-0.21053259
0.063507855
-0.074741215
-0.033376712
0.019053742
-0.14720325
0.294293
0.3796755
0.44456846
0.61241543
-0.4463454
0.048240896
-0.11114457
-0.33557597
0.4144443
-0.37039778
0.4319056
0.41678903
-0.304942
-0.33469254
-0.13121752
-0.12467749
0.20987645
0.17289126
0.019797934
-0.06955677
0.15390784
0.36862198
0.21505296
0.13866882
-0.21301816
-0.07362537
0.1440196
-0.061130922
-0.33594957
-0.058450233
0.091869354
-0.18176118
0.104884654
0.22878972
0.17198256
0.082767695
0.023205774
0.14427012
0.19017792
0.20476574
-0.039088532
-0.062089175
-0.038370308
0.18380387
-0.31799173
0.00130446
0.12017815
-0.098777235
-0.057432126
0.035452582
-0.021844193
0.010952022
0.010400436
-0.0013048565
0.15556572
-0.12495218
-0.0025536246
-0.059612855
-0.10544016
0.17890432
-0.037892163
0.0264144
0.054978617
0.022973023
0.07077188
0.19218232
0.104677334
0.04608521
0.09649801
0.019566143
0.15428348
0.15292384
-0.01971527
-0.13643527
0.022787802
-0.018401915
-0.08956407
-0.092083775
0.031175058
-0.040494353
0.040960692
0.0036825554
-0.0028008174
-0.07859478
-0.093133345
0.08886483
0.09782892
0.015490521
0.14051795
-0.12013264
-0.090186976
-0.11170377
-0.052495524
0.0037664722
-0.007414446
-0.08195739
-0.103398904
0.13259369
-0.0856429
-0.01624575
-0.049231086
0.020308673
0.12992437
-0.006115121
0.11335957
0.17586617
0.05417546
-0.11268755
-0.0005155343
0.042131975
0.15319972
0.12559474
0.03191692
0.14805548
-0.09868195
0.12122114
0.030986192
-0.08834456
-0.09194655
-0.088353485
-0.02272971
-0.01533221
0.09173993
0.19028851
0.010851404
0.06731451
-0.0995039
0.050836798
-0.04617592
0.08193069
-0.055143215
0.025064044
0.083497815
0.07405709
0.054811914
-0.051805563
0.10278452
0.011336693
0.09771727
0.009896664
0.09642959
-0.068157755
0.026984492
0.10813782
-0.09375603
-0.038839694
0.03200247
-0.043617178
0.074061275
-0.047486123
0.072805285
0.01802159
-0.10229891
0.051803093
-0.08727583
-0.108024515
0.09095555
0.010582171
-0.051474374
-0.07530019
0.008578343
0.0837552
-0.066118985
-0.07314609
0.028352993
-0.06690416
-0.0039947405
-0.011400267
0.0027511541
0.08793268
-0.04683356
-0.040249113
0.110513665
0.19821027
0.19933525
0.32949504
-0.08735541
0.069445394
-0.02316464
0.051127594
-0.07376215
0.0731161
-0.08505966
-0.01577917
0.030310215
-0.04085087
-0.050787248
-0.0051284973
-0.009356228
-0.13996449
0.08174615
-0.028602831
-0.10532016
-0.054805234
-0.08062196
-0.09818633
0.018206226
-0.17680304
-0.048287366
-0.094577864
0.05511709
-0.20755228
-0.20616877
-0.0050239475
-0.117231674
-0.13180912
-0.00081772404
-0.19059367
0.0003757584
0.31640062
0.12690833
0.23309954
-0.1854001
-0.015241012
0.021113422
-0.17814438
0.42558068
-0.39322856
0.46601734
0.44202825
-0.36329058
-0.153323
-0.14181887
-0.053789683
0.18909098
0.34515917
0.45116568
0.25440145
-0.25566876
0.08576809
-0.26767632
-0.26321992
0.41149384
-0.5255493
0.47916597
0.3333427
-0.29492992
-0.24137577
-0.2555004
-0.35154238
0.0521226
0.08283802
0.08151888
0.059197173
0.07517794
-0.035366546
0.26427534
-0.049408555
-0.05444988
-0.018887756
0.064423576
-0.014651558
0.029378532
-0.15926865
-0.059042457
0.029532285
-0.044823714
-0.08774373
-0.056331426
-0.05260375
-0.044125196
-0.08502708
0.023069257
0.048384383
0.03687745
-0.13907
-0.11602986
-0.11753629
0.10907643
0.07163301
-0.035010017
0.020111322
-0.13276558
-0.014253381
-0.17053926
0.04037884
-0.026397137
0.05913066
-0.08110203
0.032183714
-0.020399336
-0.27581856
-0.025246982
0.15698248
-0.19440898
-0.06469477
-0.34929982
-0.2594852
0.21547472
0.4898204
0.49268022
0.4277222
0.16746618
0.4259001
0.21083565
0.2893577
0.32997358
-0.4626073
0.21230072
0.19791143
-0.16697806
0.10290617
-0.08042346
0.12155972
-0.11390882
0.0929666
-0.0986132
0.031912092
0.072423264
-0.08008614
0.15883169
0.015287987
-0.027136153
0.021262312
0.08374904
-0.08503425
0.12234526
0.033579316
0.082997665
0.33934265
0.2505857
0.15132843
-0.074289985
-0.030571498
0.275096
0.35075444
0.35645524
0.06723465
-0.10485926
0.091994904
0.01583919
-0.12109368
-0.120082736
0.090977214
0.11193644
0.060743067
0.11578502
0.12543838
0.014581761
0.14361463
0.028205214
0.034383625
0.15036695
-0.018349012
0.053221826
-0.023450268
0.18832639
-0.0028249165
0.013885508
-0.010245789
-0.06028119
0.0809807
-0.08084038
0.006112483
-0.03307353
-0.061397098
0.012582993
-0.031255957
0.013472746
0.0026789373
0.13835496
-0.21016796
0.14672166
0.16622949
-0.1230135
0.00397188
-0.04982942
-0.0327166
0.047110893
0.016669312
0.041667383
0.03493583
-0.017601075
0.011377701
-0.094892405
-0.13507697
0.0939277
0.06574191
0.081573516
-0.022451172
-0.0863715
0.046546936
0.023032362
0.12012302
-0.20369962
0.08220295
0.01268699
-0.11723524
0.06136102
-0.07101715
0.04144901
0.0147258565
0.42957184
-0.19221121
0.32009962
0.16534427
-0.20610793
-0.18138589
0.027479067
0.0017665258
0.16108379
0.16616431
0.123069346
-0.029422974
-0.0062518334
0.016191682
0.033716075
-0.13527843
0.060551655
-0.09706729
-0.039959423
0.06900033
-0.23643677
0.000576614
0.0742172
0.0051515554
-0.08272002
-0.07563181
-0.082013056
0.1905623
-0.015406962
0.028709553
0.083852686
-0.10326309
0.068965614
-0.15143132
0.041522995
0.09233071
-0.10042964
-0.060925353
-0.18477611
-0.18545854
-0.10702396
0.0006846444
0.0964277
-0.049950942
0.1381231
-0.01438495
0.016287953
0.13303027
0.060600936
-0.14531188
-0.024626102
0.02929791
0.03098323
-0.09172796
0.06468336
0.115451716
0.032338522
0.1464886
-0.094850495
-0.02742205
0.10311471
0.11997228
0.010016891
0.07792419
0.041257013
0.05944248
0.11544654
-0.11861772
0.10987436
-0.12767033
-0.055576902
0.16667187
0.07319971
-0.12019228
0.043810483
0.028554365
-0.081289805
0.12771335
0.0061797113
0.109096296
0.023856113
-0.047438644
-0.13437474
-0.12942944
0.0035528897
-0.1087295
-0.089788504
-0.228045
0.0073933443
0.12376752
-0.08672437
0.08420436
-0.14673735
0.1590763
-0.049020328
-0.011419576
0.29149893
-0.31309775
0.27691144
0.1833618
-0.058321737
-0.14450204
-0.078926206
0.00283153
0.03329901
0.14219168
-0.063354254
0.038045418
-0.05019845
0.10169267
-0.09947303
-0.06553438
0.42461267
-0.16822806
0.37855336
0.4526946
-0.41836616
-0.115605064
-0.078358956
-0.08811551
-0.1725091
-0.023857147
-0.12452658
-0.21520671
-0.052665703
0.05784964
0.060406964
-0.21792655
0.23498738
-0.17811608
0.029840972
0.16939
-0.29840684
-0.16921465
-0.10712133
-0.33764508
-0.30112237
0.10481672
0.0038197818
-0.11947902
-0.20450784
0.092678465
-0.038749006
-0.025295563
-0.22829767
0.10125815
0.10676054
0.20197238
-0.32243913
-0.56514
-0.3610238
-0.58830607
0.026388662
-0.01034765
-0.15222806
0.08859951
-0.13314238
-0.12734011
0.026379364
-0.13783489
-0.036326658
-0.19073954
0.14475265
-0.062130466
-0.53499675
-0.34993976
-0.5527222
-0.50818706
0.005831445
0.41413885
0.24436924
0.2683655
0.06393903
0.09729146
0.074035145
-0.079759404
0.25750104
-0.18135858
0.26983556
0.32866925
-0.228881
0.03042799
-0.073244356
-0.050645135
-0.14196855
0.07637173
-0.086724244
0.02696865
-0.13411303
0.07447929
-0.02953376
0.06266557
-0.10105332
-0.0038745312
0.14099586
0.027160082
0.051523436
-0.104749985
-0.2122297
-0.036269844
0.03335598
-0.105263
-0.09704056
-0.124078795
0.14772862
0.108016714
-0.016645376
-0.053546045
0.105908036
-0.18161394
0.01706994
-0.054247245
0.102516316
-0.014893518
0.051434394
-0.18141627
-0.13917647
-0.020808542
0.0099051185
-0.07074241
-0.08914976
-0.11360324
0.067733265
0.12710893
0.025706213
-0.12930039
0.04408209
0.14427863
0.09650045
-0.039717562
-0.11828024
0.0122214155
0.14741108
0.10899881
0.0013927282
-0.02985858
0.057677764
0.035386365
0.05918372
0.10289157
0.52086186
-0.35224956
0.49722242
0.27130646
0.13412412
-0.08661877
-0.07976865
-0.33194163
-0.081238195
0.05427818
-0.030321676
-0.08498581
-0.17708467
-0.116788186
0.029921357
-0.051045194
0.116202176
-0.17436649
0.11963211
0.07682768
-0.14844735
0.017133545
-0.14080147
-0.0032141474
-0.033390775
0.13861105
-0.03510206
-0.11233336
-0.08908776
-0.06993176
0.06861102
-0.15910244
0.49956632
-0.38308424
0.24083039
0.27068564
-0.59456235
-0.45844722
-0.5095741
-0.8562086
-0.013621175
-0.01869012
-0.047029845
-0.103522524
-0.05461308
0.035225417
0.11546461
0.042822216
0.06671104
-0.05761656
-0.08116617
0.09889694
0.057154704
0.04773591
-0.08690315
-0.089028
0.111113906
0.16657393
0.26605687
0.091757365
-0.042581085
0.043396022
0.19857028
-0.094734624
0.16522986
0.021124396
0.2743364
0.09937532
-0.44049639
-0.30868432
-0.20837446
-0.3609076
-0.09548713
-0.0385104
0.050165158
-0.009726886
0.041978363
0.05311824
-0.0265116
-0.12858425
0.030180529
-0.13994208
0.094625905
0.07865475
-0.07839288
-0.20296715
-0.19316724
-0.027356185
-0.0709077
0.063726
0.17822126
0.19179724
-0.20047104
-0.12302432
-0.073195115
0.02088406
0.11877316
-0.16538635
0.13064161
0.102907754
-0.07636562
0.011898809
-0.13518003
-0.2237515
-0.13456744
0.11287455
-0.107257076
-0.13883923
-0.18583576
0.044590205
0.12610097
-0.14816052
0.054867335
0.04670893
-0.13058132
-0.010800903
-0.24140166
-0.2267839
-0.31611243
-0.5257351
-0.085221015
-0.13765822
-0.07986674
0.046629127
-0.32522228
0.03428503
0.051067352
-0.28510857
0.15271656
-0.020294167
-0.03693441
-0.047433026
-0.48878863
-0.32309648
-0.13654466
-0.5276064
-0.24112572
0.060674522
-0.13536055
0.10223099
-0.020302763
0.013190672
-0.020483714
-0.123808734
0.08246287
0.038986355
0.1022994
0.07915821
-0.23687908
-0.14377691
-0.1017277
-0.31409448
-0.15107618
-0.09950711
-0.029336276
0.009594198
-0.11174955
0.10757785
0.07920434
-0.13534322
0.1500647
-0.07756535
0.087912165
0.055732794
-0.18798055
-0.05966658
-0.1972905
-0.090461746
0.044430856
0.013284813
-0.050072968
0.06830529
0.03737338
-0.07056505
-0.13720721
-0.0787503
0.10898381
-0.20732781
-0.06759014
0.010154523
-0.0717556
0.10700723
-0.33081314
-0.061475918
0.12405773
0.11536763
-0.036171045
0.08253641
-0.12368412
0.17161012
-0.077544756
-0.1004089
0.01081364
0.029729804
0.1866194
0.00092007406
-0.06079933
0.051220596
-0.098525845
0.008431792
-0.10562814
0.05916723
0.0032277287
0.037633777
-0.1783826
-0.124778375
-0.11804498
0.07466229
0.12520191
-0.09038606
0.07677278
0.06196562
0.00045079424
-0.057477925
-0.049390897
-0.07664009
-0.09935297
-0.0086621195
-0.05750279
0.12124543
-0.072863735
0.04389228
-0.02674564
0.09370816
-0.021114327
-0.08752981
0.06329323
0.015175298
0.07059044
-0.0833886
-0.1014335
-0.050634548
-0.008784962
-0.043362178
0.056677923
0.09657707
-0.09386398
0.16817258
-0.083256245
0.12663376
-0.100156225
-0.03915124
0.12334371
0.019110886
0.010698312
-0.02365383
-0.11735653
-0.008448178
-0.17353876
0.13733898
-0.091139
-0.06755406
0.015694661
-0.021209156
-0.03578493
-0.1306631
-0.07122857
-0.039392304
-0.08049763
0.025475945
-0.15426455
-0.06907972
0.08134672
0.007939512
0.10001192
-0.08939637
0.13481224
0.04004701
0.07156213
-0.025615945
0.0151029425
-0.102987126
-0.122993805
0.027122837
-0.04199594
-0.10968425
0.0047573685
0.13830428
-0.051058527
0.09518472
0.1578528
0.18573754
0.041447353
0.31656387
-0.17196845
-0.17613325
-0.13797104
-0.16100349
0.27652666
-0.110758565
0.006186546
0.20938843
-0.10136516
-0.29088455
0.00068196165
-0.10765793
0.33206156
0.36617702
0.40179685
0.46030656
-0.05384197
-0.15369442
-0.12383049
-0.35031635
-0.25380066
0.29104602
-0.30626038
-0.35262758
-0.4261326
-0.48211464
-0.39128798
-0.4311663
0.250238
0.22838047
0.10515503
0.24442415
-0.3187069
-0.30192515
-0.42655382
-0.2658871
-0.46683547
0.24732628
-0.48434466
-0.56157565
-0.3968932
-0.45902172
-0.30139175
-0.2425694
0.11684475
0.17011788
0.17453158
0.11128187
-0.3391792
-0.5252559
-0.40484354
-0.5640472
-0.52524495
0.43369815
-0.5969651
-0.81735003
-0.32715523
-0.7441255
-0.5900352
-0.4727796
0.39558572
0.3240992
-0.00094805186
0.21897335
-0.2566585
-0.124345616
-0.2758214
-0.5054775
0.008312291
0.010245446
0.010151399
-0.007987946
-0.3742142
-0.38673115
-0.5339349
-0.5375782
0.07756774
0.08792446
0.08924503
0.102262825
-0.2979554
-0.20162205
-0.12611257
-0.5915697
0.22348264
0.02343999
0.030868685
-0.10049327
-0.1834705
-0.49426293
-0.37305492
-0.45515776
0.051187206
0.06832967
0.10761054
0.21795392
-0.07920262
-0.12981005
0.05880502
-0.13045767
0.14981224
-0.10640531
0.008841954
0.047728915
-0.30930477
-0.17080052
-0.26276755
-0.1090099
0.04500648
0.03486967
0.01926111
0.13215163
0.11095405
0.07288431
0.05190167
-0.3091086
0.117838435
-0.17421806
0.1687831
0.07792933
-0.11903735
0.019330604
-0.22418024
-0.20914114
-0.033166718
-0.061162956
0.123270474
0.05722179
-0.031554405
-0.018188184
-0.0628164
-0.09036896
0.0866376
-0.058508527
0.013358539
-0.017423656
-0.038995698
0.056150172
-0.07713271
-0.016547276
-0.079099596
-0.12787881
0.01284941
-0.074136265
-0.070122875
-0.027921211
-0.10348537
-0.28490052
0.14940485
-0.043707076
0.1569383
0.030609623
-0.25474507
-0.2936433
-0.04458371
-0.4378608
0.21570037
-0.030880146
0.12009232
0.17149156
-0.3374818
-0.12326478
-0.082201
-0.23190233
0.061935764
-0.08139903
-0.0091620125
0.2431524
-0.18475486
-0.3976514
-0.3091061
-0.3553697
-0.16965649
0.10172561
0.1544043
-0.048958704
-0.07661783
0.062902994
0.025878198
-0.054431178
0.16066903
-0.0016327819
-0.12840883
0.091647185
-0.20908508
-0.11283802
-0.14815278
-0.28653607
-0.1853237
0.020612594
-0.091172025
-0.110999875
-0.23422854
0.11664559
-0.04433178
-0.20001464
0.16815056
0.057266425
0.073720254
0.11130418
-0.3577814
-0.0984596
-0.14887752
-0.2792025
-0.12380144
0.035827316
-0.020773236
0.1555079
-0.11673731
0.046326187
0.008960735
0.10277312
0.013003628
0.020418588
0.035343435
0.11734627
-0.057053767
0.08806059
-0.0012755139
-0.10009061
-0.144188
-0.12370601
-0.08260144
-0.14071436
-0.029903984
-0.13915767
-0.12896077
-0.07070336
0.043400954
0.026840053
-0.048325498
0.07226958
-0.013727743
-0.01526297
-0.03255832
0.059589658
0.046323385
-0.083882585
0.11573037
-0.07470426
-0.0051096543
0.099224076
0.13623624
-0.1442248
-0.10808322
0.0030404772
-0.15133823
0.055703305
0.06355266
-0.10587408
0.056746714
0.10171877
0.19169557
-0.028138377
0.07537087
0.016887471
-0.15604137
-0.03663407
-0.105840564
0.05582825
0.10980699
-0.1545281
-0.099616595
-0.037775468
0.081936225
0.06775027
-0.07094237
-0.13340747
0.18093322
0.05822745
0.19553411
0.24026527
-0.055708367
-0.5400924
-0.090434544
-0.37178692
-0.46407446
0.53216624
-0.42795065
-0.56629837
-0.16252212
-0.38894778
-0.27841333
-0.33141467
0.64182645
0.62975824
0.6475766
0.650946
0.097253084
-0.15127999
0.035081156
0.08190695
-0.12118594
0.30138958
-0.3458568
-0.4026495
0.19786867
0.115789436
0.0872019
0.1883478
0.00065056887
0.12122109
0.15987185
0.19787805
-0.42819336
-0.36298025
-0.29140404
-0.81067073
-0.63838226
0.4016899
-0.7013528
-0.6979128
-0.26289672
-0.68334174
-0.65839183
-0.3625878
0.04717569
-0.01130738
-0.075791195
0.15002564
-0.2447181
-0.3612251
-0.30682415
-0.6665259
-0.23045567
0.1316297
-0.21751834
-0.19840318
-0.36558586
-0.53720194
-0.47892404
-0.4621152
-0.06815618
0.08244848
0.08336899
0.1815694
-0.15100068
-0.09888162
-0.17889573
-0.39411196
-0.2368617
-0.022432018
-0.2180767
-0.07770123
-0.16930269
-0.291374
-0.2283986
-0.27342135
0.3950576
0.5647434
0.2790628
0.52880836
-0.04511014
-0.26584792
-0.061556324
-0.26756683
0.07454489
-0.03089928
-0.0061771516
0.036449984
-0.57328844
-0.49492323
-0.5441041
-0.35040176
-0.046345204
0.13817681
0.11690891
-0.016350148
0.034587663
-0.17488945
0.12555417
0.023509331
0.20427567
-0.14486659
0.142405
0.11647552
-0.22590613
-0.037848953
-0.062257543
-0.08406197
0.08962139
0.17346631
-0.00031427658
0.024919443
-0.059549302
-0.10773073
-0.08406014
-0.08706463
0.19891614
-0.24501851
0.015575333
0.12996629
-0.04960439
-0.05205267
-0.10397367
-0.15254258
-0.11667237
-0.0341457
-0.0007795887
0.03276828
-0.06342266
-0.12523788
-0.057257634
-0.038610134
0.5336851
-0.30268648
0.29446426
0.43572387
-0.21800031
-0.058897283
-0.06642423
-0.13537304
0.16229114
0.16660525
0.17535692
0.18993098
-0.09645673
-0.16128951
-0.095951125
-0.07563031
0.37476233
-0.2538139
0.34911162
0.541243
-0.2506532
-0.22158894
-0.13692737
-0.08815348
-0.023518106
0.11221902
0.07028532
0.14607216
-0.12364438
-0.15879533
-0.17759389
-0.2365504
0.1765789
-0.037738785
0.18206206
0.22223896
-0.27151218
-0.3687631
-0.050151415
-0.2778439
0.041406997
0.10577039
0.017836245
-0.08927093
-0.24791804
-0.054739065
-0.02431336
-0.14556748
-0.0723637
-0.049821723
-0.014676279
0.007958787
-0.22386113
-0.10704518
-0.0433774
-0.31765965
-0.18992811
0.13896704
0.07518822
0.10063927
-0.076563254
0.016104897
-0.07637718
-0.13619055
0.087921135
-0.046446472
-0.031206204
-0.113814
-0.19033948
-0.12717496
-0.049173467
-0.037700795
0.07188316
0.14760025
-0.06616723
-0.059668943
-0.15171099
0.15783487
-0.09891689
0.086687855
0.20398466
-0.105813235
0.024727875
-0.0004000892
-0.030144114
0.09242353
0.09818322
-0.05366837
0.11589384
-0.024453929
0.043336563
0.1299861
0.07353044
-0.13087705
0.07469446
-0.11396587
-0.060459994
-0.04115729
-0.07974042
0.01947821
-0.11018284
0.007829893
-0.092735335
-0.07674529
0.04852504
-0.012675501
-0.1419738
0.00336374
0.07128025
-0.025584964
-0.031180669
-0.100912586
0.19166204
-0.053987496
0.07467357
0.19958746
-0.17474943
-0.034534868
-0.06090785
0.10825936
0.16734636
0.2195813
0.10218763
0.37388307
0.066508576
-0.13275507
0.062178683
-0.13048962
-0.14961809
0.09348158
-0.14787711
0.009766966
-0.026753351
-0.05057342
-0.0039377036
0.16153082
0.09546199
0.3288507
0.31393513
0.3099261
-0.18194647
-0.113709226
0.023404479
-0.026885029
0.01989469
-0.024781117
0.03222927
-0.15320483
-0.07949929
-0.19209923
-0.13708644
-0.044783313
0.17479518
-0.07270754
0.18430935
0.16009444
-0.29162946
-0.5912086
-0.23808515
-0.43366343
-0.7616573
0.67764825
-0.7743156
-0.7993922
-0.13970476
-0.4064884
-0.20345007
-0.22242369
0.16180794
0.09919238
0.1537537
0.4151705
-0.30775818
-0.5108903
-0.3786723
-0.742963
-0.9058434
0.80822074
-0.8149896
-0.92492706
-0.47121283
-0.63140243
-0.3682315
-0.5046195
0.017730605
0.21388282
-0.08099597
0.2401075
-0.43970755
-0.25289696
-0.26649514
-0.48167858
-0.23001698
0.20921127
-0.110678576
-0.16892861
-0.47925535
-0.6340921
-0.42145264
-0.5122882
0.1492346
0.24571142
-0.027390182
0.43027154
-0.1524412
-0.40584007
-0.43695757
-0.8028387
-0.111216165
0.29538062
-0.30442542
-0.13217664
-0.35675013
-0.8640256
-0.6908876
-0.6632577
-0.23791014
-0.010402966
0.005637897
0.14288263
-0.22191866
0.023183752
-0.19967161
-0.27601126
0.22749445
-0.044380233
0.089338765
0.14262363
-0.15074845
-0.10539961
-0.16585211
-0.27346677
0.11803133
-0.07345593
-0.07654155
-0.03379927
0.04471563
0.12245042
-0.13065167
-0.1711789
0.16577518
-0.20583199
0.042102817
0.094658375
-0.2784412
-0.06399056
-0.07056555
0.020991199
-0.06929573
-0.09021701
-0.03247853
-0.036090583
-0.072809815
-0.022244023
-0.11410336
-0.16177136
0.12954615
-0.07203647
0.07701038
0.18135405
-0.30279562
-0.03226359
0.009627139
-0.15057573
-0.009211976
0.10040223
0.13272104
0.25283983
-0.2933349
-0.021254795
-0.006597407
-0.15022533
0.26908064
-0.2674936
0.4010881
0.413179
-0.2829905
-0.098177426
-0.067068435
-0.20996027
-0.11578792
0.2956303
0.20537034
0.12211291
-0.22544383
-0.33021817
-0.25846103
-0.32379016
0.038647875
-0.0509698
0.09632798
0.03869989
-0.32287198
-0.36735007
-0.19475389
-0.49496362
-0.09610987
0.17136326
0.046119027
-0.031255033
-0.44862947
-0.10285853
-0.09315742
-0.30560324
0.019691173
-0.10046543
0.07152827
-0.10820406
-0.43725365
-0.3620831
-0.373257
-0.3460658
0.07783386
0.27024555
-0.033086747
0.100111365
-0.23845609
0.060762335
0.08256163
-0.19592607
0.06145362
-0.17015882
-0.012931531
-0.032734606
-0.26136312
-0.025958294
-0.25021604
-0.2363899
0.028734623
0.33947352
0.29420412
0.235935
-0.028570315
0.074154034
-0.01951054
-0.07145865
0.18489619
-0.24871302
0.23126584
0.13767181
-0.12466923
0.062529944
-0.09921446
-0.059906326
0.10271522
0.07127215
0.053898036
0.05355191
-0.07873912
0.011416719
-0.008768111
0.011919662
0.098461494
-0.00989228
-0.06472043
-0.0047919163
-0.09659377
-0.13513716
0.07317153
-0.014956684
0.034969155
0.20821019
-0.048795387
-0.045908134
-0.014104748
0.09831857
-0.050490394
-0.07713028
0.04298293
-0.14661887
0.10606591
0.18339437
-0.14558685
-0.11221943
0.031462863
0.06308696
-0.1404218
0.08930769
0.07420337
0.20657302
-0.017253155
-0.24740258
0.053764604
-0.18106888
0.10561042
-0.09419277
-0.052361432
-0.12648225
-0.2486636
-0.28628913
-0.15338585
-0.10529952
-0.39779717
-0.053048246
-0.06366735
-0.13859245
-0.22833452
-0.053265568
-0.14628443
-0.16113915
0.42220375
-0.19530581
-0.12661886
0.08814865
-0.39154968
-0.20716739
-0.2605489
-0.103514284
-0.04085672
0.097344674
-0.18152691
-0.083927855
-0.26595932
-0.017852874
-0.15661146
-0.116730906
0.12160418
-0.008525742
-0.2667408
0.008591274
-0.2737979
-0.2082815
0.072756514
0.0025985567
-0.012978688
0.13142553
0.11908131
-0.08018549
-0.1665545
-0.21996906
-0.08257632
-0.062292427
0.23524666
-0.016029326
-0.08771001
0.24599122
-0.32304803
-0.017448923
-0.1322182
-0.14009495
0.07964781
-0.02843258
-0.09306897
-0.00066695904
-0.017943714
-0.19761342
0.028727926
-0.03496547
-0.030734856
-0.011595235
-0.039392576
0.20951308
-0.11659687
-0.085905015
-0.14814907
-0.21643998
0.08293337
0.20781165
0.031400956
0.0792304
0.042746246
-0.07132767
-0.012435785
-0.15931119
0.1769909
-0.078497685
0.2950427
0.40938085
-0.25646457
-0.27386737
-0.24431199
-0.30141708
-0.35525757
0.0030226826
0.124262236
-0.110446244
-0.5714413
-0.2564688
-0.42257953
-0.6664688
-0.071556896
0.23585951
0.06993891
-0.06508287
-0.6846025
-0.8515495
-0.75682485
-0.8222873
0.37578046
0.61172533
0.42209432
0.5610421
0.040757056
-0.09033316
0.2881235
-0.119544245
0.42251962
-0.15758488
0.23094203
0.11220645
0.012476619
-0.023204925
-0.06484465
-0.05324313
0.2475098
0.6640708
0.6625164
0.55776834
0.10149431
0.25546598
0.42879733
-0.049618103
0.26362813
-0.4428086
0.3792405
0.3457008
-0.007109834
-0.115908556
-0.12434345
-0.11231293
0.15125571
0.36902815
0.47226074
0.43022814
0.048418757
0.22704463
0.2789058
0.077427484
0.41151524
-0.3806434
0.3123962
0.10956116
0.051130325
0.24387473
0.108287126
0.23862512
0.09217974
0.041502725
-0.09502428
-0.046118967
-0.05784128
-0.09810901
-0.059991285
-0.039272532
0.122699864
-0.08715242
0.06522551
-0.007111439
0.026826011
-0.101090446
-0.029057607
0.05551125
-0.020197323
0.08363693
0.13455904
0.05558289
0.0016092414
0.047148254
-0.0032458403
0.12025765
0.08679738
-0.044667616
0.09777758
-0.027471967
0.10203561
-0.09221427
0.0604044
0.12270661
-0.12516978
0.11999001
0.08990718
0.10202556
0.024060953
0.08970758
-0.08920231
-0.07799651
-0.024245271
-0.1032488
0.08341513
0.083986156
-0.039727278
0.019043237
0.038250685
-0.0048254915
0.08718711
-0.057063118
0.094783574
0.106944904
0.07064071
0.04297115
0.0872511
-0.0031722188
0.10836293
-0.09724304
-0.10399608
0.08565533
-0.08207113
-0.10637809
0.09674777
-0.01229699
0.0314693
0.0083068
0.06111631
-0.07563905
-0.07239969
0.109737866
-0.08708362
0.032012116
0.20571543
-0.1434452
-0.098526776
0.13748498
-0.14655861
-0.14491895
0.010911199
-0.09735466
-0.023192687
0.10953825
0.0840924
0.06203109
-0.088146925
-0.14648454
0.008263679
-0.10821429
0.29917476
-0.047390964
-0.018687785
0.16495238
-0.25009847
-0.22396743
-0.023478698
-0.13911545
0.083202094
0.12964351
0.019087529
0.15933871
-0.19631004
-0.08927288
-0.10402901
-0.22842425
0.40532464
-0.24862123
0.2054025
0.3364095
-0.06564056
-0.21166554
-0.06124351
0.09039673
-0.07366359
-0.19418174
-0.18488586
0.17550756
-0.39795104
-0.39055383
-0.21656774
-0.48721638
0.14427273
-0.01718124
0.06258125
0.10661203
-0.46697816
-0.21914274
-0.21274887
-0.24793433
0.032087326
-0.005854114
-0.055405434
-0.09887951
-0.12083277
-0.08184868
0.24271972
0.013524626
0.02025207
0.030172184
0.120924294
0.020914758
-0.43616176
-0.11142288
-0.25852278
-0.3131415
-0.009210662
0.09208062
0.103041
-0.070905164
-0.026103955
-0.009155985
0.092764795
0.09760067
-0.022931997
-0.04932207
0.16886562
0.18581252
-0.014870631
-0.19646612
-0.117226675
-0.19299196
0.40002567
0.5573165
0.4724684
0.54222524
0.19100672
0.29240587
0.34141034
0.18141688
0.46268
-0.52918905
0.56235486
0.38335675
0.18351108
0.10542911
0.16027243
0.29878047
0.42663205
0.6082047
0.40309015
0.37071607
0.12812693
0.35236466
0.29663527
0.11198932
0.20952423
-0.20495711
0.4872104
0.30049086
0.12901731
0.252603
0.24540271
0.33594862
0.640513
0.44163123
0.57748276
0.54384524
0.6404151
0.4900681
0.42636874
0.42515364
0.036915366
-0.13671839
-0.030215807
0.07935233
0.7137476
0.77722406
0.69596094
0.6097951
0.6605162
0.6600248
0.39834884
0.5855599
0.37191537
0.32412162
0.5864857
0.43613404
0.042749465
-0.104294814
-0.006885083
0.13104352
0.6893703
0.70641464
0.5956985
0.60038656
0.051995486
-0.018521667
0.034993336
0.123653635
0.008477986
0.04384546
-0.035521686
0.098911464
-0.118884936
0.00100936
0.13007699
0.046793863
0.011762351
-0.056827396
-0.043810233
-0.054307632
-0.054526728
0.023037799
-0.056236904
-0.032499287
0.039925545
0.19803445
0.09388824
0.15683822
0.13023277
-0.108149625
-0.04212711
0.042895276
0.09989239
-0.10766504
-0.038084377
-0.027741598
-0.11008427
-0.055281
-0.03030981
0.038721092
-0.0892111
0.08662652
-0.10889019
0.11355217
0.031722855
-0.18033592
0.17977197
0.0021507116
-0.17097859
0.0065454305
-0.033424478
-0.10149832
-0.094887465
0.12776022
-0.11127607
0.08135187
-0.10297203
0.031068986
0.017756976
0.0042744237
-0.12093154
-0.14799687
0.0806983
0.17483552
0.039812915
-0.15897648
-0.1443995
-0.10581165
0.040249687
0.017415758
-0.11911831
-0.15841304
-0.04580953
-0.02538623
-0.11519882
-0.089237325
0.10305929
0.11967112
-0.023089873
0.1312871
-0.09890072
-0.017956438
-0.07931633
-0.14078806
-0.013503267
-0.027383178
0.04636017
-0.004591427
-0.078108996
-0.06489164
-0.029163798
0.023258775
0.2182634
-0.11637012
-0.03128761
0.22006449
-0.13101149
0.011023387
-0.07178185
-0.035778902
0.12886488
0.13454844
0.17312609
0.14085191
-0.1609042
-0.13136211
-0.07919896
-0.1311894
0.28585136
-0.25681025
0.088366754
0.26226872
-0.23682567
-0.07966603
-0.07648025
-0.07192436
0.17509888
0.11617249
-0.15931092
0.09834517
-0.05629514
-0.13279961
-0.018091166
-0.15834442
0.1115371
0.20707849
0.032916434
0.30690113
0.032740306
-0.14294343
-0.10564757
-0.08274704
-0.071453385
0.0030599325
0.05286884
-0.06351356
0.03503724
0.058866426
-0.021657733
0.053171083
0.15551393
-0.04987079
0.08832691
0.10507521
-0.2662545
-0.097755015
-0.24992141
-0.099236086
0.15177292
0.005746513
-0.02867619
-0.08568087
-0.09192793
0.0014449118
0.003667612
-0.010935392
0.004928029
-0.077251345
0.14047159
0.29553512
-0.25429022
-0.14049324
-0.23442003
-0.077970296
0.03950508
0.11465712
0.14186458
-0.114346035
0.035404384
-0.12947115
-0.1434762
0.09144135
-0.09202354
-0.092808604
-0.101226166
0.07972808
0.09807211
0.041745514
0.054611117
0.095491186
-0.017489836
0.11375959
-0.06244541
-0.027211174
0.03203459
-0.019850634
-0.058661953
0.12307273
0.13697316
-0.069807716
0.13992105
0.026402548
-0.0055187047
0.046933413
-0.1424535
-0.019925572
-0.11216399
0.14252438
0.11192425
-0.034682058
-0.16180818
-0.0099623
-0.026051994
-0.058468502
0.020927574
-0.029149119
-0.005231248
0.1081282
0.11946054
-0.15203384
0.052082434
0.034503665
0.16030826
0.0059146974
0.27096862
0.029258126
-0.15337312
-0.22432642
0.048669215
-0.18459332
-0.21057275
0.17346422
-0.31112364
-0.22203656
-0.0114879245
-0.21221913
-0.046665344
0.078324236
0.038874418
-0.09486435
0.036826685
-0.08654214
-0.07149579
-0.06634914
-0.0945224
-0.009541944
-0.062820576
0.14165293
0.03000775
0.08860545
0.117965594
-0.08487392
0.10260455
-0.10070914
0.02449599
-0.07542421
0.032150894
-0.06468311
-0.063534506
-0.099440545
0.06631948
-0.085595936
0.13719462
-0.042685702
0.14258166
0.04253055
0.08982897
-0.080581486
0.14378102
-0.087430805
-0.08757791
0.1475116
-0.12695079
0.118893094
-0.10323312
0.04578103
0.039843228
0.10910423
0.07067044
-0.086365595
0.032105673
0.11971662
-0.02096079
-0.052318666
0.026023371
-0.07652404
-0.059963297
-0.01651673
0.11566281
0.11779204
0.17301737
0.15011343
-0.018389294
0.12334624
-0.12432068
0.057254083
-0.15934983
-0.041272253
0.19326389
0.18568635
0.097567074
0.098462835
0.017967846
-0.0006455323
0.14562836
-0.07634733
-0.23304056
-0.4242887
-0.096587785
-0.17342721
-0.47401026
0.38597494
-0.35034767
-0.16905034
-0.18741776
-0.36671403
-0.2843088
-0.33186913
0.25940368
0.107758686
0.03995278
0.1323814
-0.0022255282
0.10018158
0.058477443
0.18135576
-0.2018205
-0.0027095056
-0.22477378
-0.03719008
0.21408866
0.22475834
0.24450943
0.18020451
0.08796514
0.08481487
-0.017377898
-0.04394874
0.0032219053
0.13374232
0.09640247
-0.07908571
0.10967587
-0.075151615
0.0035024832
0.0141305225
-0.05633567
-0.055499025
-0.045299858
-0.027572786
0.06018758
-0.025585815
0.13829549
0.09871228
-0.09467915
-0.09324987
0.09663868
0.01868321
-0.054874323
0.04356584
-0.06398917
0.06370199
-0.096624255
0.10484691
0.11251412
0.033078894
0.115862355
-0.14445306
-0.015197635
-0.022302918
-0.0029224753
0.044388488
0.021134123
0.053219095
-0.11438499
-0.107434735
-0.11734639
-0.14256503
-0.037491612
0.112011656
0.13042395
-0.091129415
0.061004035
-0.019619307
-0.10232227
-0.00038740312
0.02644102
0.039530713
-0.07619439
-0.06547974
-0.057221126
-0.05067853
0.103700474
0.043082792
-0.07603538
0.0030135228
0.14280908
0.022182714
-0.026667904
-0.043779243
0.0072750226
0.027959555
-0.092737235
-0.024185795
-0.0019143851
0.036889527
0.10109171
0.1150173
-0.047784273
0.11654144
-0.0913969
0.052191846
-0.021528391
-0.08362652
0.05185422
-0.01094653
-0.035046678
-0.012506722
-0.16615067
-0.09759814
-0.13223702
-0.056905575
-0.21055396
0.19114532
-0.38404348
-0.011432732
0.14222798
-0.07050523
-0.047645386
-0.029393584
0.075762436
0.14989956
-0.1302924
0.10621798
0.009246538
0.12037554
0.090172894
-0.049931724
0.02756754
-0.14392324
-0.044204965
0.10998819
0.010354466
0.03760735
-0.05504328
-0.04439752
0.06824561
0.105906844
-0.10109955
-0.13001606
-0.10626406
-0.078053296
0.009817202
-0.09696042
-0.09538584
0.016562833
0.15201956
-0.07027157
0.011841051
0.21656711
-0.008201761
0.047920953
0.022956207
0.09271547
0.13395078
-0.007848569
0.039030433
0.0029808702
-0.09273774
-0.05808383
-0.060299814
0.12113468
-0.09530461
0.07241037
-0.026597597
0.10014723
0.010055899
0.07135963
0.034414757
0.059654318
0.06660304
-0.009565708
0.05308072
-0.031640876
0.124040835
-0.008386034
-0.06371589
-0.0011448014
0.044109397
0.1927418
-0.10260166
0.0019244977
0.11405342
-0.056871362
-0.1532781
0.1132034
-0.009258192
0.016688509
-0.008641611
0.0690776
-0.007719133
0.13498303
0.08687013
-0.18243937
0.16105866
-0.018260626
0.07195515
-0.04597593
-0.13074733
-0.1653694
-0.06554265
-0.017651169
-0.033561252
-0.116068244
-0.03979189
0.124466985
0.09810647
-0.02705008
0.15577567
-0.030127859
0.11599454
0.14504184
-0.11805325
-0.07169562
0.0076513877
0.056778744
